{
    "learner": {
        "attributes": {
            "best_iteration": "24",
            "best_ntree_limit": "25",
            "scikit_learn": "{\"use_label_encoder\": null, \"n_estimators\": 25, \"objective\": \"binary:logistic\", \"max_depth\": 4, \"max_leaves\": null, \"max_bin\": null, \"grow_policy\": \"lossguide\", \"learning_rate\": null, \"verbosity\": null, \"booster\": null, \"tree_method\": \"hist\", \"gamma\": null, \"min_child_weight\": null, \"max_delta_step\": null, \"subsample\": null, \"sampling_method\": null, \"colsample_bytree\": null, \"colsample_bylevel\": null, \"colsample_bynode\": null, \"reg_alpha\": null, \"reg_lambda\": null, \"scale_pos_weight\": null, \"base_score\": null, \"missing\": NaN, \"num_parallel_tree\": null, \"random_state\": 42, \"n_jobs\": null, \"monotone_constraints\": null, \"interaction_constraints\": null, \"importance_type\": \"total_cover\", \"gpu_id\": null, \"validate_parameters\": null, \"predictor\": null, \"enable_categorical\": true, \"feature_types\": null, \"max_cat_to_onehot\": null, \"max_cat_threshold\": null, \"eval_metric\": null, \"early_stopping_rounds\": null, \"callbacks\": null, \"classes_\": [0, 1], \"n_classes_\": 2, \"_estimator_type\": \"classifier\"}"
        },
        "feature_names": [
            "distancia_oficina",
            "dias_baja_salud",
            "permanencia_promedio",
            "salario",
            "performance_score",
            "psi_score",
            "edad",
            "ratio_salario_distancia",
            "ratio_salario_psi_score",
            "edad_cuando_se_incorporo",
            "anio_incorporacion",
            "mes_incorporacion",
            "tiempo_empresa",
            "degree",
            "distancia_oficina_jefe",
            "dias_baja_salud_jefe",
            "permanencia_promedio_jefe",
            "salario_jefe",
            "performance_score_jefe",
            "psi_score_jefe",
            "edad_jefe",
            "ratio_salario_distancia_jefe",
            "ratio_salario_psi_score_jefe",
            "edad_cuando_se_incorporo_jefe",
            "anio_incorporacion_jefe",
            "mes_incorporacion_jefe",
            "tiempo_empresa_jefe",
            "degree_jefe",
            "personal_a_cargo_Si",
            "modalidad_trabajo_Presencial",
            "genero_Mujer",
            "canal_reclutamiento_Headhunter",
            "canal_reclutamiento_Linkedin",
            "canal_reclutamiento_Portal Web",
            "canal_reclutamiento_Referidos",
            "estado_civil_Divorciado",
            "estado_civil_Soltero",
            "estado_civil_Viudo",
            "trimestre_incorporacion_Q2",
            "trimestre_incorporacion_Q3",
            "trimestre_incorporacion_Q4",
            "personal_a_cargo_jefe_Si",
            "modalidad_trabajo_jefe_Presencial",
            "genero_jefe_Mujer",
            "canal_reclutamiento_jefe_Headhunter",
            "canal_reclutamiento_jefe_Linkedin",
            "canal_reclutamiento_jefe_Portal Web",
            "canal_reclutamiento_jefe_Referidos",
            "estado_civil_jefe_Divorciado",
            "estado_civil_jefe_Soltero",
            "estado_civil_jefe_Viudo",
            "trimestre_incorporacion_jefe_Q2",
            "trimestre_incorporacion_jefe_Q3",
            "trimestre_incorporacion_jefe_Q4"
        ],
        "feature_types": [
            "float",
            "int",
            "int",
            "int",
            "float",
            "int",
            "int",
            "float",
            "float",
            "int",
            "int",
            "int",
            "int",
            "float",
            "float",
            "float",
            "float",
            "float",
            "float",
            "float",
            "float",
            "float",
            "float",
            "float",
            "float",
            "float",
            "float",
            "float",
            "i",
            "i",
            "i",
            "i",
            "i",
            "i",
            "i",
            "i",
            "i",
            "i",
            "i",
            "i",
            "i",
            "i",
            "i",
            "i",
            "i",
            "i",
            "i",
            "i",
            "i",
            "i",
            "i",
            "i",
            "i",
            "i"
        ],
        "gradient_booster": {
            "model": {
                "gbtree_model_param": {
                    "num_parallel_tree": "1",
                    "num_trees": "25",
                    "size_leaf_vector": "0"
                },
                "tree_info": [
                    0,
                    0,
                    0,
                    0,
                    0,
                    0,
                    0,
                    0,
                    0,
                    0,
                    0,
                    0,
                    0,
                    0,
                    0,
                    0,
                    0,
                    0,
                    0,
                    0,
                    0,
                    0,
                    0,
                    0,
                    0
                ],
                "trees": [
                    {
                        "base_weights": [
                            -1.3565217E-1,
                            4.5887446E-1,
                            -8.173913E-1,
                            3.8628572E-1,
                            1.6226416E0,
                            1.7931035E-1,
                            7.826087E-1,
                            -3.0731708E-1,
                            8.066299E-2,
                            -6.980854E-1,
                            -1.4153847E0,
                            -7.5268817E-1,
                            5E-1,
                            -3.0163935E-1,
                            -1.2664361E-1,
                            2.8446218E-1,
                            -2.3076925E-2,
                            -7.5555557E-1,
                            -5.05618E-1,
                            -4.2857148E-2,
                            -4.2857146E-1,
                            -8.5714296E-2,
                            2.7272728E-1,
                            7.5E-1,
                            5.4146343E-1,
                            -0E0,
                            3.6E-1
                        ],
                        "categories": [],
                        "categories_nodes": [],
                        "categories_segments": [],
                        "categories_sizes": [],
                        "default_left": [
                            0,
                            0,
                            0,
                            0,
                            0,
                            0,
                            0,
                            0,
                            0,
                            0,
                            0,
                            0,
                            0,
                            0,
                            0,
                            0,
                            0,
                            0,
                            0,
                            0,
                            0,
                            0,
                            0,
                            0,
                            0,
                            0,
                            0
                        ],
                        "id": 0,
                        "left_children": [
                            1,
                            3,
                            9,
                            5,
                            23,
                            7,
                            15,
                            -1,
                            -1,
                            11,
                            17,
                            13,
                            21,
                            -1,
                            -1,
                            -1,
                            -1,
                            19,
                            -1,
                            -1,
                            -1,
                            -1,
                            -1,
                            25,
                            -1,
                            -1,
                            -1
                        ],
                        "loss_changes": [
                            1.7516591E2,
                            1.8887245E1,
                            1.3369934E1,
                            1.7803532E1,
                            7.534523E-1,
                            1.5908026E1,
                            1.0712643E1,
                            0E0,
                            0E0,
                            1.1481178E1,
                            4.516777E0,
                            1.3173866E1,
                            2.8311687E0,
                            0E0,
                            0E0,
                            0E0,
                            0E0,
                            4.4349213E0,
                            0E0,
                            0E0,
                            0E0,
                            0E0,
                            0E0,
                            1.3499999E0,
                            0E0,
                            0E0,
                            0E0
                        ],
                        "parents": [
                            2147483647,
                            0,
                            0,
                            1,
                            1,
                            3,
                            3,
                            5,
                            5,
                            2,
                            2,
                            9,
                            9,
                            11,
                            11,
                            6,
                            6,
                            10,
                            10,
                            17,
                            17,
                            12,
                            12,
                            4,
                            4,
                            23,
                            23
                        ],
                        "right_children": [
                            2,
                            4,
                            10,
                            6,
                            24,
                            8,
                            16,
                            -1,
                            -1,
                            12,
                            18,
                            14,
                            22,
                            -1,
                            -1,
                            -1,
                            -1,
                            20,
                            -1,
                            -1,
                            -1,
                            -1,
                            -1,
                            26,
                            -1,
                            -1,
                            -1
                        ],
                        "split_conditions": [
                            6.9E1,
                            1.2389119E7,
                            1E0,
                            3E0,
                            8.98019E5,
                            6.8E1,
                            1.1E1,
                            -3.0731708E-1,
                            8.066299E-2,
                            2E0,
                            4.9E1,
                            1E0,
                            6E0,
                            -3.0163935E-1,
                            -1.2664361E-1,
                            2.8446218E-1,
                            -2.3076925E-2,
                            2E0,
                            -5.05618E-1,
                            -4.2857148E-2,
                            -4.2857146E-1,
                            -8.5714296E-2,
                            2.7272728E-1,
                            2E0,
                            5.4146343E-1,
                            -0E0,
                            3.6E-1
                        ],
                        "split_indices": [
                            4,
                            8,
                            34,
                            1,
                            3,
                            19,
                            11,
                            0,
                            0,
                            13,
                            20,
                            36,
                            2,
                            0,
                            0,
                            0,
                            0,
                            1,
                            0,
                            0,
                            0,
                            0,
                            0,
                            1,
                            0,
                            0,
                            0
                        ],
                        "split_type": [
                            0,
                            0,
                            0,
                            0,
                            0,
                            0,
                            0,
                            0,
                            0,
                            0,
                            0,
                            0,
                            0,
                            0,
                            0,
                            0,
                            0,
                            0,
                            0,
                            0,
                            0,
                            0,
                            0,
                            0,
                            0,
                            0,
                            0
                        ],
                        "sum_hessian": [
                            4.3025E2,
                            2.3E2,
                            2.0025E2,
                            2.1775E2,
                            1.225E1,
                            1.44E2,
                            7.375E1,
                            9.25E0,
                            1.3475E2,
                            1.6875E2,
                            3.15E1,
                            1.6175E2,
                            7E0,
                            9.05E1,
                            7.125E1,
                            6.175E1,
                            1.2E1,
                            1.025E1,
                            2.125E1,
                            6E0,
                            4.25E0,
                            2.5E0,
                            4.5E0,
                            3E0,
                            9.25E0,
                            1.5E0,
                            1.5E0
                        ],
                        "tree_param": {
                            "num_deleted": "0",
                            "num_feature": "54",
                            "num_nodes": "27",
                            "size_leaf_vector": "0"
                        }
                    },
                    {
                        "base_weights": [
                            -9.75699E-2,
                            3.2961267E-1,
                            -5.919699E-1,
                            4.5151845E-1,
                            -1.8380022E-1,
                            4.7321424E-1,
                            -6.1887777E-1,
                            3.0690843E-1,
                            -1.9203229E-1,
                            3.5574573E-1,
                            1.1431887E0,
                            8.6952254E-2,
                            4.37417E-1,
                            -7.707884E-1,
                            -3.076821E-1,
                            5.054643E-1,
                            -5.062948E-1,
                            -3.5514227E-1,
                            -3.1260734E-3,
                            8.3989024E-1,
                            -8.149284E-1,
                            2.4727932E-1,
                            -1.9413848E-1,
                            -4.2501214E-1,
                            -2.1666683E-1,
                            -1.6980058E-1,
                            1.8219821E-1,
                            7.545478E-2,
                            4.010174E-1,
                            4.0150687E-1,
                            -2.7832191E-2
                        ],
                        "categories": [],
                        "categories_nodes": [],
                        "categories_segments": [],
                        "categories_sizes": [],
                        "default_left": [
                            0,
                            1,
                            0,
                            0,
                            0,
                            0,
                            0,
                            0,
                            0,
                            0,
                            0,
                            0,
                            0,
                            0,
                            0,
                            0,
                            0,
                            0,
                            0,
                            0,
                            0,
                            0,
                            0,
                            0,
                            0,
                            0,
                            0,
                            0,
                            0,
                            0,
                            0
                        ],
                        "id": 1,
                        "left_children": [
                            1,
                            3,
                            13,
                            9,
                            5,
                            7,
                            17,
                            -1,
                            -1,
                            11,
                            27,
                            -1,
                            -1,
                            19,
                            15,
                            21,
                            25,
                            -1,
                            -1,
                            29,
                            23,
                            -1,
                            -1,
                            -1,
                            -1,
                            -1,
                            -1,
                            -1,
                            -1,
                            -1,
                            -1
                        ],
                        "loss_changes": [
                            8.995344E1,
                            1.4392994E1,
                            9.795601E0,
                            1.1852013E1,
                            1.303675E1,
                            1.1873598E1,
                            9.355968E0,
                            0E0,
                            0E0,
                            1.1491642E1,
                            3.4699497E0,
                            0E0,
                            0E0,
                            9.250488E0,
                            1.2831856E1,
                            6.3340755E0,
                            4.538183E0,
                            0E0,
                            0E0,
                            1.8472161E0,
                            5.5476E0,
                            0E0,
                            0E0,
                            0E0,
                            0E0,
                            0E0,
                            0E0,
                            0E0,
                            0E0,
                            0E0,
                            0E0
                        ],
                        "parents": [
                            2147483647,
                            0,
                            0,
                            1,
                            1,
                            4,
                            4,
                            5,
                            5,
                            3,
                            3,
                            9,
                            9,
                            2,
                            2,
                            14,
                            14,
                            6,
                            6,
                            13,
                            13,
                            15,
                            15,
                            20,
                            20,
                            16,
                            16,
                            10,
                            10,
                            19,
                            19
                        ],
                        "right_children": [
                            2,
                            4,
                            14,
                            10,
                            6,
                            8,
                            18,
                            -1,
                            -1,
                            12,
                            28,
                            -1,
                            -1,
                            20,
                            16,
                            22,
                            26,
                            -1,
                            -1,
                            30,
                            24,
                            -1,
                            -1,
                            -1,
                            -1,
                            -1,
                            -1,
                            -1,
                            -1,
                            -1,
                            -1
                        ],
                        "split_conditions": [
                            6.9E1,
                            7E1,
                            2.019E3,
                            7E0,
                            2.87219E5,
                            2.1927246E7,
                            6.0067385E6,
                            3.0690843E-1,
                            -1.9203229E-1,
                            3E0,
                            4E0,
                            8.6952254E-2,
                            4.37417E-1,
                            1.06E0,
                            2.02E3,
                            1E0,
                            8.8E1,
                            -3.5514227E-1,
                            -3.1260734E-3,
                            5E0,
                            1E0,
                            2.4727932E-1,
                            -1.9413848E-1,
                            -4.2501214E-1,
                            -2.1666683E-1,
                            -1.6980058E-1,
                            1.8219821E-1,
                            7.545478E-2,
                            4.010174E-1,
                            4.0150687E-1,
                            -2.7832191E-2
                        ],
                        "split_indices": [
                            4,
                            18,
                            10,
                            1,
                            3,
                            22,
                            8,
                            0,
                            0,
                            13,
                            11,
                            0,
                            0,
                            0,
                            10,
                            45,
                            5,
                            0,
                            0,
                            2,
                            1,
                            0,
                            0,
                            0,
                            0,
                            0,
                            0,
                            0,
                            0,
                            0,
                            0
                        ],
                        "split_type": [
                            0,
                            0,
                            0,
                            0,
                            0,
                            0,
                            0,
                            0,
                            0,
                            0,
                            0,
                            0,
                            0,
                            0,
                            0,
                            0,
                            0,
                            0,
                            0,
                            0,
                            0,
                            0,
                            0,
                            0,
                            0,
                            0,
                            0,
                            0,
                            0,
                            0,
                            0
                        ],
                        "sum_hessian": [
                            4.2399387E2,
                            2.2763817E2,
                            1.9635571E2,
                            1.8405608E2,
                            4.3582085E1,
                            1.7327705E1,
                            2.6254377E1,
                            1.1653654E1,
                            5.6740513E0,
                            1.6300043E2,
                            2.105566E1,
                            1.5499644E2,
                            8.003977E0,
                            1.1948669E2,
                            7.6869026E1,
                            1.4786437E1,
                            6.2082592E1,
                            1.312382E1,
                            1.3130558E1,
                            2.7062745E0,
                            1.1678041E2,
                            1.1805867E1,
                            2.9805696E0,
                            1.3682387E1,
                            1.0309802E2,
                            5.9390125E1,
                            2.6924691E0,
                            4.16517E0,
                            1.6890491E1,
                            1.4801964E0,
                            1.2260782E0
                        ],
                        "tree_param": {
                            "num_deleted": "0",
                            "num_feature": "54",
                            "num_nodes": "31",
                            "size_leaf_vector": "0"
                        }
                    },
                    {
                        "base_weights": [
                            -6.920238E-2,
                            2.4106681E-1,
                            -4.3341312E-1,
                            -5.393202E-1,
                            3.1760674E-2,
                            -7.4744153E-1,
                            -2.4105136E-1,
                            1.9307175E-1,
                            1.117179E0,
                            1.2553932E-1,
                            7.4310786E-1,
                            8.709439E-2,
                            -6.336214E-2,
                            7.0291424E-1,
                            -2.2579779E-1,
                            -2.9126176E-1,
                            3.242045E-1,
                            -1.0845171E-1,
                            1.614586E-1,
                            -2.4985078E-1,
                            -2.088341E-2,
                            1.7017061E-3,
                            3.1285548E-1,
                            -2.533372E-1,
                            1.1681912E-2,
                            3.510263E-1,
                            9.436746E-2
                        ],
                        "categories": [],
                        "categories_nodes": [],
                        "categories_segments": [],
                        "categories_sizes": [],
                        "default_left": [
                            0,
                            0,
                            0,
                            0,
                            0,
                            0,
                            0,
                            0,
                            0,
                            0,
                            0,
                            0,
                            0,
                            0,
                            0,
                            0,
                            0,
                            0,
                            0,
                            0,
                            0,
                            0,
                            0,
                            0,
                            0,
                            0,
                            0
                        ],
                        "id": 2,
                        "left_children": [
                            1,
                            7,
                            3,
                            5,
                            13,
                            19,
                            17,
                            9,
                            25,
                            11,
                            21,
                            -1,
                            -1,
                            15,
                            23,
                            -1,
                            -1,
                            -1,
                            -1,
                            -1,
                            -1,
                            -1,
                            -1,
                            -1,
                            -1,
                            -1,
                            -1
                        ],
                        "loss_changes": [
                            4.6910408E1,
                            9.216123E0,
                            9.42157E0,
                            9.475674E0,
                            6.4414916E0,
                            5.217678E0,
                            6.3337026E0,
                            7.8507614E0,
                            1.17773056E-1,
                            1.0697221E1,
                            5.1185446E0,
                            0E0,
                            0E0,
                            7.5763674E0,
                            4.4587593E0,
                            0E0,
                            0E0,
                            0E0,
                            0E0,
                            0E0,
                            0E0,
                            0E0,
                            0E0,
                            0E0,
                            0E0,
                            0E0,
                            0E0
                        ],
                        "parents": [
                            2147483647,
                            0,
                            0,
                            2,
                            2,
                            3,
                            3,
                            1,
                            1,
                            7,
                            7,
                            9,
                            9,
                            4,
                            4,
                            13,
                            13,
                            6,
                            6,
                            5,
                            5,
                            10,
                            10,
                            14,
                            14,
                            8,
                            8
                        ],
                        "right_children": [
                            2,
                            8,
                            4,
                            6,
                            14,
                            20,
                            18,
                            10,
                            26,
                            12,
                            22,
                            -1,
                            -1,
                            16,
                            24,
                            -1,
                            -1,
                            -1,
                            -1,
                            -1,
                            -1,
                            -1,
                            -1,
                            -1,
                            -1,
                            -1,
                            -1
                        ],
                        "split_conditions": [
                            6.9E1,
                            1.2389119E7,
                            4E0,
                            1E0,
                            6.3E1,
                            1E0,
                            4.8E1,
                            7E0,
                            6E1,
                            8E0,
                            7.4E1,
                            8.709439E-2,
                            -6.336214E-2,
                            6.8E1,
                            7.8E1,
                            -2.9126176E-1,
                            3.242045E-1,
                            -1.0845171E-1,
                            1.614586E-1,
                            -2.4985078E-1,
                            -2.088341E-2,
                            1.7017061E-3,
                            3.1285548E-1,
                            -2.533372E-1,
                            1.1681912E-2,
                            3.510263E-1,
                            9.436746E-2
                        ],
                        "split_indices": [
                            4,
                            8,
                            1,
                            33,
                            18,
                            35,
                            9,
                            1,
                            4,
                            12,
                            5,
                            0,
                            0,
                            5,
                            4,
                            0,
                            0,
                            0,
                            0,
                            0,
                            0,
                            0,
                            0,
                            0,
                            0,
                            0,
                            0
                        ],
                        "split_type": [
                            0,
                            0,
                            0,
                            0,
                            0,
                            0,
                            0,
                            0,
                            0,
                            0,
                            0,
                            0,
                            0,
                            0,
                            0,
                            0,
                            0,
                            0,
                            0,
                            0,
                            0,
                            0,
                            0,
                            0,
                            0,
                            0,
                            0
                        ],
                        "sum_hessian": [
                            4.1319934E2,
                            2.2330507E2,
                            1.8989427E2,
                            1.5454851E2,
                            3.5345768E1,
                            9.01436E1,
                            6.440491E1,
                            2.1286433E2,
                            1.0440731E1,
                            1.9068109E2,
                            2.218324E1,
                            1.2812527E2,
                            6.255582E1,
                            9.322853E0,
                            2.6022915E1,
                            1.4275839E0,
                            7.8952694E0,
                            5.6246525E1,
                            8.158387E0,
                            7.985467E1,
                            1.0288933E1,
                            6.7054014E0,
                            1.547784E1,
                            7.1423397E0,
                            1.8880575E1,
                            9.365526E0,
                            1.0752056E0
                        ],
                        "tree_param": {
                            "num_deleted": "0",
                            "num_feature": "54",
                            "num_nodes": "27",
                            "size_leaf_vector": "0"
                        }
                    },
                    {
                        "base_weights": [
                            -4.965201E-2,
                            1.717815E-1,
                            -3.3203882E-1,
                            1.3570786E-1,
                            3.5645708E-1,
                            -5.1811385E-1,
                            -9.5376045E-2,
                            -6.591283E-1,
                            1.5262265E-2,
                            -2.2550665E-1,
                            1.8795617E-1,
                            4.1561013E-1,
                            1.5312696E-2,
                            -6.5906584E-2,
                            9.665658E-2,
                            -3.43553E-2,
                            1.9193305E-1,
                            9.0511724E-2,
                            -2.5336897E-1,
                            1.2211303E-2,
                            -6.43046E-1,
                            1.9861546E-1,
                            -3.846126E-2,
                            -1.6133094E-2,
                            -3.015132E-1
                        ],
                        "categories": [],
                        "categories_nodes": [],
                        "categories_segments": [],
                        "categories_sizes": [],
                        "default_left": [
                            0,
                            0,
                            0,
                            0,
                            0,
                            0,
                            0,
                            0,
                            1,
                            0,
                            0,
                            0,
                            0,
                            0,
                            0,
                            0,
                            0,
                            0,
                            0,
                            0,
                            0,
                            0,
                            0,
                            0,
                            0
                        ],
                        "id": 3,
                        "left_children": [
                            1,
                            3,
                            5,
                            11,
                            -1,
                            7,
                            19,
                            9,
                            17,
                            -1,
                            -1,
                            15,
                            13,
                            -1,
                            -1,
                            -1,
                            -1,
                            -1,
                            -1,
                            21,
                            23,
                            -1,
                            -1,
                            -1,
                            -1
                        ],
                        "loss_changes": [
                            2.5310896E1,
                            8.162706E0,
                            7.782341E0,
                            7.41991E0,
                            0E0,
                            7.4816265E0,
                            4.692589E0,
                            9.823063E0,
                            5.611356E0,
                            0E0,
                            0E0,
                            7.945219E0,
                            1.1258163E1,
                            0E0,
                            0E0,
                            0E0,
                            0E0,
                            0E0,
                            0E0,
                            6.238069E0,
                            2.7346005E0,
                            0E0,
                            0E0,
                            0E0,
                            0E0
                        ],
                        "parents": [
                            2147483647,
                            0,
                            0,
                            1,
                            1,
                            2,
                            2,
                            5,
                            5,
                            7,
                            7,
                            3,
                            3,
                            12,
                            12,
                            11,
                            11,
                            8,
                            8,
                            6,
                            6,
                            19,
                            19,
                            20,
                            20
                        ],
                        "right_children": [
                            2,
                            4,
                            6,
                            12,
                            -1,
                            8,
                            20,
                            10,
                            18,
                            -1,
                            -1,
                            16,
                            14,
                            -1,
                            -1,
                            -1,
                            -1,
                            -1,
                            -1,
                            22,
                            24,
                            -1,
                            -1,
                            -1,
                            -1
                        ],
                        "split_conditions": [
                            7.1E1,
                            3E0,
                            1E0,
                            4E1,
                            3.5645708E-1,
                            1E0,
                            1E0,
                            4E0,
                            2.92E0,
                            -2.2550665E-1,
                            1.8795617E-1,
                            2E0,
                            1E0,
                            -6.5906584E-2,
                            9.665658E-2,
                            -3.43553E-2,
                            1.9193305E-1,
                            9.0511724E-2,
                            -2.5336897E-1,
                            4.5E1,
                            1E0,
                            1.9861546E-1,
                            -3.846126E-2,
                            -1.6133094E-2,
                            -3.015132E-1
                        ],
                        "split_indices": [
                            4,
                            13,
                            36,
                            4,
                            0,
                            35,
                            34,
                            13,
                            14,
                            0,
                            0,
                            15,
                            33,
                            0,
                            0,
                            0,
                            0,
                            0,
                            0,
                            18,
                            29,
                            0,
                            0,
                            0,
                            0
                        ],
                        "split_type": [
                            0,
                            0,
                            0,
                            0,
                            0,
                            0,
                            0,
                            0,
                            0,
                            0,
                            0,
                            0,
                            0,
                            0,
                            0,
                            0,
                            0,
                            0,
                            0,
                            0,
                            0,
                            0,
                            0,
                            0,
                            0
                        ],
                        "sum_hessian": [
                            4.028685E2,
                            2.2602376E2,
                            1.7684476E2,
                            2.1937149E2,
                            6.6522565E0,
                            9.833782E1,
                            7.8506935E1,
                            7.758901E1,
                            2.0748814E1,
                            7.2765564E1,
                            4.823444E0,
                            6.5241615E1,
                            1.5412988E2,
                            8.744773E1,
                            6.6682144E1,
                            1.953434E1,
                            4.5707275E1,
                            1.6050753E1,
                            4.698062E0,
                            6.643398E1,
                            1.2072959E1,
                            1.1144146E1,
                            5.5289833E1,
                            5.031355E0,
                            7.041604E0
                        ],
                        "tree_param": {
                            "num_deleted": "0",
                            "num_feature": "54",
                            "num_nodes": "25",
                            "size_leaf_vector": "0"
                        }
                    },
                    {
                        "base_weights": [
                            -3.617482E-2,
                            1.3162673E-1,
                            -2.4129502E-1,
                            -3.6318356E-1,
                            1.9636713E-1,
                            -8.2967156E-1,
                            7.2035223E-1,
                            6.3523956E-2,
                            -3.7570873E-1,
                            -2.728295E-1,
                            7.6800364E-1,
                            -3.6196503E-1,
                            9.116077E-2,
                            -1.6385198E-1,
                            -3.633756E-2,
                            5.970643E-1,
                            1.2870547E-1,
                            3.0867153E-1,
                            -3.6472364E-3,
                            3.5957447E-3,
                            1.3340761E-1,
                            -1.0963305E-1,
                            1.1879421E-1,
                            3.3082542E-1,
                            -3.9281547E-2,
                            3.5981867E-1,
                            -5.843733E-2
                        ],
                        "categories": [],
                        "categories_nodes": [],
                        "categories_segments": [],
                        "categories_sizes": [],
                        "default_left": [
                            0,
                            0,
                            0,
                            0,
                            0,
                            0,
                            0,
                            0,
                            0,
                            0,
                            0,
                            0,
                            0,
                            0,
                            0,
                            0,
                            0,
                            0,
                            0,
                            0,
                            0,
                            0,
                            0,
                            0,
                            0,
                            0,
                            0
                        ],
                        "id": 4,
                        "left_children": [
                            1,
                            3,
                            9,
                            5,
                            15,
                            7,
                            23,
                            -1,
                            -1,
                            11,
                            25,
                            13,
                            21,
                            -1,
                            -1,
                            17,
                            19,
                            -1,
                            -1,
                            -1,
                            -1,
                            -1,
                            -1,
                            -1,
                            -1,
                            -1,
                            -1
                        ],
                        "loss_changes": [
                            1.3603992E1,
                            7.039916E0,
                            5.8679295E0,
                            1.3496911E1,
                            5.1561737E0,
                            8.322725E0,
                            2.8188572E0,
                            0E0,
                            0E0,
                            5.6502285E0,
                            2.579669E0,
                            6.112837E0,
                            4.9960938E0,
                            0E0,
                            0E0,
                            7.276161E0,
                            6.132056E0,
                            0E0,
                            0E0,
                            0E0,
                            0E0,
                            0E0,
                            0E0,
                            0E0,
                            0E0,
                            0E0,
                            0E0
                        ],
                        "parents": [
                            2147483647,
                            0,
                            0,
                            1,
                            1,
                            3,
                            3,
                            5,
                            5,
                            2,
                            2,
                            9,
                            9,
                            11,
                            11,
                            4,
                            4,
                            15,
                            15,
                            16,
                            16,
                            12,
                            12,
                            6,
                            6,
                            10,
                            10
                        ],
                        "right_children": [
                            2,
                            4,
                            10,
                            6,
                            16,
                            8,
                            24,
                            -1,
                            -1,
                            12,
                            26,
                            14,
                            22,
                            -1,
                            -1,
                            18,
                            20,
                            -1,
                            -1,
                            -1,
                            -1,
                            -1,
                            -1,
                            -1,
                            -1,
                            -1,
                            -1
                        ],
                        "split_conditions": [
                            6.9E1,
                            7E1,
                            8.8E1,
                            1E0,
                            1.88659E5,
                            2.016E3,
                            9E0,
                            6.3523956E-2,
                            -3.7570873E-1,
                            4E0,
                            9E0,
                            1E0,
                            5E0,
                            -1.6385198E-1,
                            -3.633756E-2,
                            7.6E1,
                            2.021E3,
                            3.0867153E-1,
                            -3.6472364E-3,
                            3.5957447E-3,
                            1.3340761E-1,
                            -1.0963305E-1,
                            1.1879421E-1,
                            3.3082542E-1,
                            -3.9281547E-2,
                            3.5981867E-1,
                            -5.843733E-2
                        ],
                        "split_indices": [
                            4,
                            19,
                            5,
                            39,
                            3,
                            24,
                            11,
                            0,
                            0,
                            1,
                            11,
                            33,
                            11,
                            0,
                            0,
                            5,
                            10,
                            0,
                            0,
                            0,
                            0,
                            0,
                            0,
                            0,
                            0,
                            0,
                            0
                        ],
                        "split_type": [
                            0,
                            0,
                            0,
                            0,
                            0,
                            0,
                            0,
                            0,
                            0,
                            0,
                            0,
                            0,
                            0,
                            0,
                            0,
                            0,
                            0,
                            0,
                            0,
                            0,
                            0,
                            0,
                            0,
                            0,
                            0,
                            0,
                            0
                        ],
                        "sum_hessian": [
                            3.9331824E2,
                            2.1653609E2,
                            1.7678217E2,
                            2.4520014E1,
                            1.9201607E2,
                            1.7304365E1,
                            7.2156496E0,
                            5.1398773E0,
                            1.2164487E1,
                            1.7213371E2,
                            4.648451E0,
                            1.3827733E2,
                            3.385639E1,
                            7.7632065E1,
                            6.064526E1,
                            2.6609343E1,
                            1.6540672E2,
                            1.5168453E1,
                            1.1440888E1,
                            1.215473E2,
                            4.3859425E1,
                            1.3474066E1,
                            2.0382328E1,
                            4.7752314E0,
                            2.4404182E0,
                            3.0404131E0,
                            1.6080375E0
                        ],
                        "tree_param": {
                            "num_deleted": "0",
                            "num_feature": "54",
                            "num_nodes": "27",
                            "size_leaf_vector": "0"
                        }
                    },
                    {
                        "base_weights": [
                            -2.525343E-2,
                            2.7366552E-1,
                            -1.1012669E-1,
                            -3.195891E-2,
                            -5.5303395E-1,
                            -2.1236975E-1,
                            2.0869817E-1,
                            2.969689E-1,
                            -7.9585366E-2,
                            -2.003525E-1,
                            -1.158096E0,
                            3.4772104E-1,
                            -7.358511E-1,
                            -2.2597472E-1,
                            5.3492732E-2,
                            -1.2581848E0,
                            2.5109962E-1,
                            2.6957914E-1,
                            3.820735E-2,
                            -3.5241866E-1,
                            3.8628218E-1,
                            -1.5622452E-1,
                            1.3361064E-1,
                            -4.1452852E-1,
                            -7.2288826E-2,
                            -4.8471445E-1,
                            -4.7559217E-2
                        ],
                        "categories": [],
                        "categories_nodes": [],
                        "categories_segments": [],
                        "categories_sizes": [],
                        "default_left": [
                            0,
                            1,
                            0,
                            0,
                            0,
                            0,
                            0,
                            0,
                            0,
                            0,
                            0,
                            0,
                            0,
                            0,
                            0,
                            0,
                            0,
                            0,
                            0,
                            0,
                            0,
                            0,
                            0,
                            0,
                            0,
                            0,
                            0
                        ],
                        "id": 5,
                        "left_children": [
                            1,
                            11,
                            3,
                            5,
                            9,
                            7,
                            17,
                            -1,
                            -1,
                            13,
                            23,
                            19,
                            15,
                            -1,
                            -1,
                            25,
                            -1,
                            -1,
                            -1,
                            -1,
                            21,
                            -1,
                            -1,
                            -1,
                            -1,
                            -1,
                            -1
                        ],
                        "loss_changes": [
                            9.81454E0,
                            6.653429E0,
                            1.0406403E1,
                            1.1201854E1,
                            9.393332E0,
                            9.638097E0,
                            6.0927267E0,
                            0E0,
                            0E0,
                            6.3534265E0,
                            3.0313492E0,
                            5.17414E0,
                            6.1215706E0,
                            0E0,
                            0E0,
                            1.721776E0,
                            0E0,
                            0E0,
                            0E0,
                            0E0,
                            4.4749784E0,
                            0E0,
                            0E0,
                            0E0,
                            0E0,
                            0E0,
                            0E0
                        ],
                        "parents": [
                            2147483647,
                            0,
                            0,
                            2,
                            2,
                            3,
                            3,
                            5,
                            5,
                            4,
                            4,
                            1,
                            1,
                            9,
                            9,
                            12,
                            12,
                            6,
                            6,
                            11,
                            11,
                            20,
                            20,
                            10,
                            10,
                            15,
                            15
                        ],
                        "right_children": [
                            2,
                            12,
                            4,
                            6,
                            10,
                            8,
                            18,
                            -1,
                            -1,
                            14,
                            24,
                            20,
                            16,
                            -1,
                            -1,
                            26,
                            -1,
                            -1,
                            -1,
                            -1,
                            22,
                            -1,
                            -1,
                            -1,
                            -1,
                            -1,
                            -1
                        ],
                        "split_conditions": [
                            4.2E1,
                            1.2E1,
                            1E0,
                            2.019E3,
                            8E0,
                            1.12E0,
                            2.548896E5,
                            2.969689E-1,
                            -7.9585366E-2,
                            8.698263E4,
                            1E0,
                            2.1E1,
                            4.705E0,
                            -2.2597472E-1,
                            5.3492732E-2,
                            1E0,
                            2.5109962E-1,
                            2.6957914E-1,
                            3.820735E-2,
                            -3.5241866E-1,
                            6.8E1,
                            -1.5622452E-1,
                            1.3361064E-1,
                            -4.1452852E-1,
                            -7.2288826E-2,
                            -4.8471445E-1,
                            -4.7559217E-2
                        ],
                        "split_indices": [
                            4,
                            25,
                            34,
                            10,
                            2,
                            14,
                            21,
                            0,
                            0,
                            7,
                            49,
                            23,
                            0,
                            0,
                            0,
                            36,
                            0,
                            0,
                            0,
                            0,
                            19,
                            0,
                            0,
                            0,
                            0,
                            0,
                            0
                        ],
                        "split_type": [
                            0,
                            0,
                            0,
                            0,
                            0,
                            0,
                            0,
                            0,
                            0,
                            0,
                            0,
                            0,
                            0,
                            0,
                            0,
                            0,
                            0,
                            0,
                            0,
                            0,
                            0,
                            0,
                            0,
                            0,
                            0,
                            0,
                            0
                        ],
                        "sum_hessian": [
                            3.846648E2,
                            8.457431E1,
                            3.0009048E2,
                            2.5598448E2,
                            4.4106007E1,
                            1.463725E2,
                            1.0961198E2,
                            5.424149E0,
                            1.4094835E2,
                            2.8705267E1,
                            1.5400739E1,
                            7.940493E1,
                            5.1693816E0,
                            1.1266066E1,
                            1.7439201E1,
                            4.0308285E0,
                            1.138553E0,
                            1.0500789E1,
                            9.911119E1,
                            1.2336721E0,
                            7.817126E1,
                            4.3030105E0,
                            7.386825E1,
                            1.1973977E1,
                            3.4267619E0,
                            2.6876884E0,
                            1.3431404E0
                        ],
                        "tree_param": {
                            "num_deleted": "0",
                            "num_feature": "54",
                            "num_nodes": "27",
                            "size_leaf_vector": "0"
                        }
                    },
                    {
                        "base_weights": [
                            -2.069977E-2,
                            -4.9893167E-2,
                            8.214786E-1,
                            1.9648226E-1,
                            -1.5785024E-1,
                            -3.061825E-1,
                            1.2221062E-1,
                            -6.181413E-2,
                            -2.3952115E-1,
                            -3.3076163E-2,
                            1.1822862E-1,
                            4.9395394E-1,
                            2.6186025E-2,
                            2.5779833E-3,
                            2.6320726E-1,
                            3.474361E-2,
                            -2.141047E-1,
                            1.1168538E0,
                            3.453576E-1,
                            -1.584007E-1,
                            6.77953E-1,
                            1.7195283E-2,
                            1.329359E0,
                            9.249507E-2,
                            2.8325057E-1,
                            1.21909805E-1,
                            4.3235245E-1
                        ],
                        "categories": [],
                        "categories_nodes": [],
                        "categories_segments": [],
                        "categories_sizes": [],
                        "default_left": [
                            0,
                            0,
                            0,
                            0,
                            0,
                            0,
                            0,
                            0,
                            0,
                            0,
                            0,
                            0,
                            1,
                            0,
                            0,
                            0,
                            0,
                            0,
                            0,
                            0,
                            0,
                            0,
                            0,
                            0,
                            0,
                            0,
                            0
                        ],
                        "id": 6,
                        "left_children": [
                            1,
                            3,
                            17,
                            11,
                            5,
                            7,
                            9,
                            -1,
                            -1,
                            -1,
                            -1,
                            13,
                            15,
                            -1,
                            -1,
                            -1,
                            -1,
                            21,
                            19,
                            -1,
                            23,
                            -1,
                            25,
                            -1,
                            -1,
                            -1,
                            -1
                        ],
                        "loss_changes": [
                            9.363323E0,
                            9.803409E0,
                            1.4088612E0,
                            5.6804185E0,
                            1.0673182E1,
                            8.099259E0,
                            5.6915545E0,
                            0E0,
                            0E0,
                            0E0,
                            0E0,
                            7.5960417E0,
                            4.892053E0,
                            0E0,
                            0E0,
                            0E0,
                            0E0,
                            1.596139E0,
                            2.1975899E0,
                            0E0,
                            2.0330667E-1,
                            0E0,
                            4.8194885E-2,
                            0E0,
                            0E0,
                            0E0,
                            0E0
                        ],
                        "parents": [
                            2147483647,
                            0,
                            0,
                            1,
                            1,
                            4,
                            4,
                            5,
                            5,
                            6,
                            6,
                            3,
                            3,
                            11,
                            11,
                            12,
                            12,
                            2,
                            2,
                            18,
                            18,
                            17,
                            17,
                            20,
                            20,
                            22,
                            22
                        ],
                        "right_children": [
                            2,
                            4,
                            18,
                            12,
                            6,
                            8,
                            10,
                            -1,
                            -1,
                            -1,
                            -1,
                            14,
                            16,
                            -1,
                            -1,
                            -1,
                            -1,
                            22,
                            20,
                            -1,
                            24,
                            -1,
                            26,
                            -1,
                            -1,
                            -1,
                            -1
                        ],
                        "split_conditions": [
                            4E0,
                            1E0,
                            5.918748E5,
                            9E0,
                            3E0,
                            9.434528E6,
                            1E0,
                            -6.181413E-2,
                            -2.3952115E-1,
                            -3.3076163E-2,
                            1.1822862E-1,
                            5E0,
                            4.7E1,
                            2.5779833E-3,
                            2.6320726E-1,
                            3.474361E-2,
                            -2.141047E-1,
                            1E0,
                            6E0,
                            -1.584007E-1,
                            1E0,
                            1.7195283E-2,
                            4E0,
                            9.249507E-2,
                            2.8325057E-1,
                            1.21909805E-1,
                            4.3235245E-1
                        ],
                        "split_indices": [
                            13,
                            29,
                            7,
                            25,
                            1,
                            8,
                            36,
                            0,
                            0,
                            0,
                            0,
                            25,
                            20,
                            0,
                            0,
                            0,
                            0,
                            1,
                            2,
                            0,
                            37,
                            0,
                            2,
                            0,
                            0,
                            0,
                            0
                        ],
                        "split_type": [
                            0,
                            0,
                            0,
                            0,
                            0,
                            0,
                            0,
                            0,
                            0,
                            0,
                            0,
                            0,
                            0,
                            0,
                            0,
                            0,
                            0,
                            0,
                            0,
                            0,
                            0,
                            0,
                            0,
                            0,
                            0,
                            0,
                            0
                        ],
                        "sum_hessian": [
                            3.7817188E2,
                            3.6641132E2,
                            1.1760578E1,
                            1.1138737E2,
                            2.5502393E2,
                            1.6666023E2,
                            8.83637E1,
                            1.3966582E2,
                            2.6994417E1,
                            4.795561E1,
                            4.0408092E1,
                            3.985992E1,
                            7.152745E1,
                            1.8042215E1,
                            2.1817703E1,
                            6.4551315E1,
                            6.9761333E0,
                            6.427414E0,
                            5.3331647E0,
                            1.3088205E0,
                            4.024344E0,
                            1.2858719E0,
                            5.1415424E0,
                            2.588458E0,
                            1.4358859E0,
                            1.0563173E0,
                            4.0852246E0
                        ],
                        "tree_param": {
                            "num_deleted": "0",
                            "num_feature": "54",
                            "num_nodes": "27",
                            "size_leaf_vector": "0"
                        }
                    },
                    {
                        "base_weights": [
                            -1.2861733E-2,
                            -4.679322E-2,
                            5.338602E-1,
                            -7.227659E-2,
                            6.8604237E-1,
                            -2.0967302E-1,
                            6.5959424E-2,
                            1.2333696E-1,
                            -2.9846197E-1,
                            -1.3738367E-1,
                            2.486943E-1,
                            4.3115336E-1,
                            2.4369214E-1,
                            -3.254199E-1,
                            6.346486E-1,
                            -2.752693E-1,
                            2.1970354E-1,
                            3.134095E-1,
                            -9.612051E-2,
                            9.3724173E-1,
                            2.896663E-1,
                            3.446138E-1,
                            -2.1326931E-2,
                            -1.3157947E-1,
                            1.7371486E-1
                        ],
                        "categories": [],
                        "categories_nodes": [],
                        "categories_segments": [],
                        "categories_sizes": [],
                        "default_left": [
                            0,
                            0,
                            0,
                            0,
                            0,
                            0,
                            0,
                            0,
                            0,
                            0,
                            0,
                            0,
                            0,
                            1,
                            1,
                            0,
                            0,
                            0,
                            0,
                            0,
                            0,
                            0,
                            0,
                            0,
                            0
                        ],
                        "id": 7,
                        "left_children": [
                            1,
                            3,
                            11,
                            5,
                            19,
                            9,
                            7,
                            -1,
                            -1,
                            -1,
                            -1,
                            -1,
                            13,
                            15,
                            17,
                            -1,
                            -1,
                            -1,
                            -1,
                            21,
                            23,
                            -1,
                            -1,
                            -1,
                            -1
                        ],
                        "loss_changes": [
                            7.0000196E0,
                            6.678107E0,
                            5.429975E0,
                            6.545864E0,
                            9.256406E-1,
                            4.4919025E1,
                            6.345998E1,
                            0E0,
                            0E0,
                            0E0,
                            0E0,
                            0E0,
                            4.1881194E0,
                            5.6503134E0,
                            4.6216807E0,
                            0E0,
                            0E0,
                            0E0,
                            0E0,
                            1.5555081E0,
                            1.541878E0,
                            0E0,
                            0E0,
                            0E0,
                            0E0
                        ],
                        "parents": [
                            2147483647,
                            0,
                            0,
                            1,
                            1,
                            3,
                            3,
                            6,
                            6,
                            5,
                            5,
                            2,
                            2,
                            12,
                            12,
                            13,
                            13,
                            14,
                            14,
                            4,
                            4,
                            19,
                            19,
                            20,
                            20
                        ],
                        "right_children": [
                            2,
                            4,
                            12,
                            6,
                            20,
                            10,
                            8,
                            -1,
                            -1,
                            -1,
                            -1,
                            -1,
                            14,
                            16,
                            18,
                            -1,
                            -1,
                            -1,
                            -1,
                            22,
                            24,
                            -1,
                            -1,
                            -1,
                            -1
                        ],
                        "split_conditions": [
                            9E0,
                            4E0,
                            3.5E1,
                            1E0,
                            5.918748E5,
                            1E0,
                            1E0,
                            1.2333696E-1,
                            -2.9846197E-1,
                            -1.3738367E-1,
                            2.486943E-1,
                            4.3115336E-1,
                            6E0,
                            5E1,
                            7.4E1,
                            -2.752693E-1,
                            2.1970354E-1,
                            3.134095E-1,
                            -9.612051E-2,
                            5.57E0,
                            6E0,
                            3.446138E-1,
                            -2.1326931E-2,
                            -1.3157947E-1,
                            1.7371486E-1
                        ],
                        "split_indices": [
                            1,
                            13,
                            23,
                            30,
                            7,
                            43,
                            43,
                            0,
                            0,
                            0,
                            0,
                            0,
                            11,
                            20,
                            19,
                            0,
                            0,
                            0,
                            0,
                            0,
                            2,
                            0,
                            0,
                            0,
                            0
                        ],
                        "split_type": [
                            0,
                            0,
                            0,
                            0,
                            0,
                            0,
                            0,
                            0,
                            0,
                            0,
                            0,
                            0,
                            0,
                            0,
                            0,
                            0,
                            0,
                            0,
                            0,
                            0,
                            0,
                            0,
                            0,
                            0,
                            0
                        ],
                        "sum_hessian": [
                            3.7499084E2,
                            3.5393857E2,
                            2.1052263E1,
                            3.4291553E2,
                            1.1023052E1,
                            1.7172086E2,
                            1.7119466E2,
                            1.2962949E2,
                            4.1565174E1,
                            1.3904388E2,
                            3.2676975E1,
                            4.1573052E0,
                            1.6894957E1,
                            6.94818E0,
                            9.946777E0,
                            4.5394874E0,
                            2.4086928E0,
                            6.893285E0,
                            3.053492E0,
                            5.9119115E0,
                            5.111141E0,
                            4.7719083E0,
                            1.1400032E0,
                            1.3068014E0,
                            3.80434E0
                        ],
                        "tree_param": {
                            "num_deleted": "0",
                            "num_feature": "54",
                            "num_nodes": "25",
                            "size_leaf_vector": "0"
                        }
                    },
                    {
                        "base_weights": [
                            -7.2419946E-3,
                            -3.9660713E-1,
                            4.0921457E-2,
                            -7.2166663E-1,
                            5.9280414E-2,
                            2.3187684E-1,
                            -4.468384E-2,
                            2.7156435E-3,
                            -6.0851526E-1,
                            -1.8270345E-2,
                            1.952003E-1,
                            1.6030991E-2,
                            4.7699022E-1,
                            -5.0515827E-2,
                            -1.0264174E0,
                            -1.6054662E-1,
                            2.9454482E-1,
                            2.0619541E-1,
                            1.8274098E-3,
                            1.0211566E-1,
                            -6.528413E-2,
                            -2.5904244E-1,
                            6.0279083E-2,
                            4.3782455E-1,
                            -4.702845E-1,
                            -1.8145797E-1,
                            2.2158003E-1,
                            -2.6324958E-1,
                            1.5115914E-1,
                            3.431998E-2,
                            -3.4443521E-1
                        ],
                        "categories": [],
                        "categories_nodes": [],
                        "categories_segments": [],
                        "categories_sizes": [],
                        "default_left": [
                            0,
                            0,
                            0,
                            0,
                            0,
                            0,
                            0,
                            0,
                            0,
                            0,
                            0,
                            0,
                            0,
                            1,
                            0,
                            0,
                            0,
                            0,
                            0,
                            0,
                            0,
                            0,
                            0,
                            0,
                            0,
                            0,
                            0,
                            0,
                            0,
                            0,
                            0
                        ],
                        "id": 8,
                        "left_children": [
                            1,
                            3,
                            5,
                            13,
                            23,
                            11,
                            7,
                            9,
                            21,
                            -1,
                            -1,
                            19,
                            17,
                            15,
                            29,
                            -1,
                            -1,
                            -1,
                            -1,
                            -1,
                            -1,
                            -1,
                            -1,
                            25,
                            27,
                            -1,
                            -1,
                            -1,
                            -1,
                            -1,
                            -1
                        ],
                        "loss_changes": [
                            6.952927E0,
                            6.090704E0,
                            5.4061575E0,
                            4.836568E0,
                            3.7965064E0,
                            5.4065013E0,
                            6.1150417E0,
                            8.77863E0,
                            3.8353038E0,
                            0E0,
                            0E0,
                            4.2763143E0,
                            4.7383404E0,
                            4.7856827E0,
                            2.4062004E0,
                            0E0,
                            0E0,
                            0E0,
                            0E0,
                            0E0,
                            0E0,
                            0E0,
                            0E0,
                            3.8848934E0,
                            3.5952091E0,
                            0E0,
                            0E0,
                            0E0,
                            0E0,
                            0E0,
                            0E0
                        ],
                        "parents": [
                            2147483647,
                            0,
                            0,
                            1,
                            1,
                            2,
                            2,
                            6,
                            6,
                            7,
                            7,
                            5,
                            5,
                            3,
                            3,
                            13,
                            13,
                            12,
                            12,
                            11,
                            11,
                            8,
                            8,
                            4,
                            4,
                            23,
                            23,
                            24,
                            24,
                            14,
                            14
                        ],
                        "right_children": [
                            2,
                            4,
                            6,
                            14,
                            24,
                            12,
                            8,
                            10,
                            22,
                            -1,
                            -1,
                            20,
                            18,
                            16,
                            30,
                            -1,
                            -1,
                            -1,
                            -1,
                            -1,
                            -1,
                            -1,
                            -1,
                            26,
                            28,
                            -1,
                            -1,
                            -1,
                            -1,
                            -1,
                            -1
                        ],
                        "split_conditions": [
                            1E0,
                            2.019E3,
                            6.4E1,
                            4.5E1,
                            7.8E1,
                            1E0,
                            5.6E1,
                            4.8E1,
                            8.2E1,
                            -1.8270345E-2,
                            1.952003E-1,
                            3.893277E5,
                            1E1,
                            6E0,
                            1.4E0,
                            -1.6054662E-1,
                            2.9454482E-1,
                            2.0619541E-1,
                            1.8274098E-3,
                            1.0211566E-1,
                            -6.528413E-2,
                            -2.5904244E-1,
                            6.0279083E-2,
                            4.9268294E5,
                            1E0,
                            -1.8145797E-1,
                            2.2158003E-1,
                            -2.6324958E-1,
                            1.5115914E-1,
                            3.431998E-2,
                            -3.4443521E-1
                        ],
                        "split_indices": [
                            1,
                            10,
                            18,
                            4,
                            4,
                            33,
                            6,
                            9,
                            5,
                            0,
                            0,
                            21,
                            16,
                            16,
                            14,
                            0,
                            0,
                            0,
                            0,
                            0,
                            0,
                            0,
                            0,
                            21,
                            39,
                            0,
                            0,
                            0,
                            0,
                            0,
                            0
                        ],
                        "split_type": [
                            0,
                            0,
                            0,
                            0,
                            0,
                            0,
                            0,
                            0,
                            0,
                            0,
                            0,
                            0,
                            0,
                            0,
                            0,
                            0,
                            0,
                            0,
                            0,
                            0,
                            0,
                            0,
                            0,
                            0,
                            0,
                            0,
                            0,
                            0,
                            0,
                            0,
